2 300
## -0.0264 0.0468 -0.0099 -0.0242 -0.0762 0.0562 0.0863 0.0115 -0.0471 0.0442 -0.0875 0.0376 -0.0404 -0.0086 0.0161 -0.1689 0.1485 -0.0201 0.1021 -0.0635 -0.0317 0.0142 0.0588 -0.1299 -0.0905 0.0389 -0.0452 0.1352 0.0731 0.0648 0.1309 0.0493 0.0785 0.0154 -0.1015 0.1603 0.0429 -0.0860 0.0112 -0.0234 -0.0317 -0.0177 0.0262 -0.0854 -0.0502 0.0060 -0.0389 -0.0306 0.1039 -0.0059 0.0581 0.0387 -0.0071 -0.0459 0.0889 -0.0225 -0.1519 0.0183 -0.0499 0.0031 -0.0135 0.0781 0.0779 0.0764 -0.0349 0.0237 -0.0913 -0.0135 0.0197 -0.0859 0.0977 0.0555 -0.1392 0.0621 0.0043 -0.0910 -0.0492 0.1207 0.0680 -0.0766 0.1148 -0.0516 0.0889 0.0005 0.0418 -0.0148 -0.1174 -0.0028 -0.0364 0.2235 0.0457 0.0742 -0.0247 0.0750 -0.0161 -0.0358 0.0904 0.0243 0.0878 -0.0349 -0.0338 0.0341 0.0033 -0.1524 0.0120 0.0512 -0.1012 0.1893 0.0160 0.0901 -0.0088 -0.0117 -0.0402 0.0127 0.0599 0.0554 -0.0355 0.0166 0.0081 0.0735 -0.0492 -0.0143 0.0236 0.0316 0.0123 -0.0962 -0.0296 0.0214 0.0457 -0.0269 0.0250 -0.0744 0.0726 -0.0407 0.0648 0.0853 -0.1508 -0.0313 -0.0530 -0.0708 -0.0865 0.0445 -0.0142 -0.0684 -0.0349 -0.0433 -0.0051 -0.0502 -0.0334 -0.0139 -0.0475 -0.0330 -0.0533 0.0517 0.0109 -0.0364 -0.0203 0.1343 0.1095 0.0563 0.0313 0.0424 -0.0018 0.0234 -0.0101 0.0316 0.0495 -0.0056 -0.0289 0.0001 0.0348 -0.0311 0.0259 -0.0232 0.0067 -0.0116 0.0337 -0.0206 -0.0224 -0.0668 -0.0432 0.0451 0.0524 0.0230 0.0553 -0.0686 0.0552 -0.0209 -0.0161 -0.0291 0.0548 -0.0810 -0.0712 0.0141 0.0543 0.0135 0.0585 -0.0449 0.0033 -0.0448 0.0833 -0.0034 -0.0162 -0.0051 -0.0228 -0.0906 -0.0758 0.0024 0.0017 0.0323 0.0156 0.0006 0.0257 0.0503 -0.0480 -0.0097 -0.0171 0.0374 0.0083 0.0100 0.0217 0.0851 -0.0119 -0.0136 -0.0666 -0.0161 0.0840 0.0363 -0.0542 0.0272 0.0291 -0.0112 -0.0212 -0.0475 -0.0432 -0.0446 0.0142 -0.0165 -0.0507 0.0461 0.0163 0.0456 0.0066 0.0940 -0.0250 -0.0624 -0.0214 -0.0644 0.0007 -0.0333 0.0039 0.0340 -0.0159 -0.0121 0.0351 0.0249 0.0245 -0.0575 -0.0118 0.0083 -0.0405 -0.0442 -0.0030 -0.0026 0.0268 0.0119 -0.0072 -0.0020 -0.0541 -0.0310 -0.0539 -0.0102 0.0531 -0.0148 0.0233 -0.0520 -0.0110 -0.0719 -0.0853 0.0042 -0.0072 -0.0107 -0.0166 -0.0348 0.0278 0.0657 0.0365 -0.0736 -0.0728 0.0685 0.0438 -0.0374 0.0461 0.0205 0.0029 -0.0236 -0.0570 -0.0772 -0.0370 -0.0094
### -0.0096 0.0318 -0.0095 -0.0420 -0.0831 0.1103 0.0750 0.0240 -0.0237 0.0398 -0.1274 -0.0299 -0.0209 -0.0195 -0.0043 -0.1033 0.1378 -0.0499 0.0517 -0.0958 -0.0651 0.0214 0.0096 -0.0855 -0.1049 0.0360 -0.0562 0.0430 0.0616 0.1124 0.1520 0.0418 0.0628 -0.0189 -0.0484 0.1523 0.0711 -0.0835 -0.0030 0.0202 0.0153 -0.0011 0.0296 -0.0950 -0.0356 0.0085 -0.0029 -0.0689 0.0457 -0.0112 0.0109 0.0332 0.0008 -0.0683 0.0320 -0.0738 -0.1427 0.0060 -0.0224 0.0769 -0.0485 0.0945 0.0705 0.0421 0.0236 0.0668 -0.1513 0.0050 -0.0263 -0.0333 0.1269 0.0369 -0.1083 0.1136 0.0843 -0.0723 -0.0611 0.0793 0.0899 0.0053 0.0455 -0.0245 0.0370 -0.0362 0.0363 0.0243 -0.1006 -0.0292 -0.0404 0.1555 0.0108 0.0326 -0.0220 0.0070 0.0196 -0.0253 0.0323 0.0411 0.0906 0.0034 -0.0174 -0.0099 0.0377 -0.1354 -0.0429 0.0610 -0.0803 0.1756 0.0564 0.0532 -0.0637 0.0459 -0.0723 -0.0181 0.0334 0.0662 -0.0337 0.0154 0.0326 0.0543 -0.0411 0.0221 0.0588 0.0039 0.0041 -0.0544 -0.0307 0.0475 -0.0164 0.0595 0.0129 -0.1196 0.1066 -0.0255 0.1027 0.0913 -0.1054 -0.0237 -0.0528 -0.0398 -0.0138 0.0060 -0.0697 -0.0287 -0.0597 -0.0144 -0.0201 -0.0192 -0.0388 0.0522 -0.0407 -0.0794 -0.0387 -0.0037 0.0116 -0.0030 -0.0306 0.0579 0.1525 0.0546 0.0406 0.0457 -0.0461 0.0528 -0.0403 0.0291 0.0689 -0.0385 -0.1019 -0.0015 -0.0053 -0.0175 0.0864 -0.0189 0.0937 -0.0496 0.0215 -0.0068 0.0281 -0.0492 0.0014 0.0834 -0.0189 -0.0118 0.0037 -0.0084 0.1488 -0.0438 -0.0004 0.0507 0.0293 -0.0167 -0.0544 0.0016 0.0000 -0.0044 0.0277 -0.0027 0.0230 -0.0479 0.0767 0.0196 -0.0939 -0.0611 0.0601 -0.0367 -0.0237 -0.0313 0.0512 -0.0121 0.0545 -0.0041 0.0067 0.0165 -0.0299 0.0038 0.0258 0.0806 0.0828 -0.0238 0.0248 0.1178 -0.0126 0.0402 -0.0860 0.0523 0.0531 0.0677 -0.0899 0.0051 -0.0473 -0.0153 -0.0060 -0.0213 -0.0323 0.0317 -0.0396 0.0425 -0.0501 0.0063 0.0929 0.0123 0.0399 -0.0014 -0.0129 -0.0812 -0.0711 -0.0389 0.0139 -0.0856 0.0197 0.0151 0.0265 -0.0698 0.0364 -0.0418 -0.0392 -0.0441 0.0160 0.0078 -0.0607 0.0378 0.0454 -0.0088 0.0209 -0.0662 0.0327 -0.0240 -0.0311 0.0255 -0.0000 0.0231 -0.0765 -0.0388 0.0423 0.0843 0.0218 -0.0617 0.0050 0.0265 0.0097 0.0794 -0.0195 -0.0030 0.0160 0.0133 0.0230 -0.0569 -0.0390 0.1070 0.0506 -0.0528 0.0850 0.0342 -0.0888 0.0028 -0.0692 0.0705 0.0775 0.0190

